{"weights": [[-1.4781028986399622, -0.5243843319450848, -1.0822563694156677, -0.8070224227509859, -0.5572880156340783, -0.34219773819094157, -1.8166607702225854, 0.4614330419621339, 0.23158754025714823, 0.43917089995696623, -0.004359707032967484, -0.10690124488588411, -3.5572952447956547, 0.4569409857161614, 0.9053351654855095, 1.6085649701179445, 0.2663093586176424, -0.272239126210541, -4.165995850515241, -0.37415620563745333, -0.6795071468877407, 0.11998068461718513, -0.5749881557488086, -1.4605574055829291, -5.57550889489837, 0.5442467245911179, 1.6583796383217169, 1.0603481240973431, 0.027551654754286756, -2.738447047514474, -4.49935134623591, -4.086377392984856, -4.679419689598333, -2.4538362977492305, -2.95486924032443, -2.251299658845471], [0.42027971907825135, -0.9479011078990875, 0.9984780869792779, 0.37159226469814916, -0.13158434907871927, -0.2485636533339802, 2.1874590030957064, -0.21360023350915613, 0.11061036656794805, 0.8955838006716951, 0.46621693116978286, -0.10961542595837019, 0.20578376442102153, -0.24482327686559446, 0.6946922897928768, 0.7014521294787557, 0.32376801239217945, -0.16875385550020877, -0.9845759021812517, -0.7742233763788833, 1.3807871310421447, 1.1015576195711898, 0.3558117800264397, -0.7932778951270527, -2.537873065570478, -3.027010247215676, -2.2592392591618533, -3.0302920000652374, -2.748024639306554, -2.1111436766940876, -1.7204857870376729, -1.5473436020468774, -1.3231991076551313, -1.5288585685321399, -1.35490285147231, -1.4780025848264013], [-0.7689449511306099, 0.18869909406209298, 1.553656542393805, 0.4374672375837165, 0.7303125068194216, 0.5564134439939044, -1.133461635187326, -0.14418253106911091, 0.41803428972101, 0.12385791861128606, -0.13547724692058533, 0.37612396760301525, -2.027082628805846, 0.2974724044074117, 1.4717050638263958, 0.8007272034652596, 0.046565226524932765, 0.5457525329570271, -0.6683061887131143, 1.0532751656007437, 1.6709591540882767, 0.6432185910654036, 0.09069871507858791, -1.5928997194579724, -1.5892320218496194, 2.6435257537026864, 3.8074388572259603, 5.030328270773404, 3.8560168582097, -0.8167193204364248, -1.5374207200392573, -1.1290603493326146, -1.0848964213188295, -1.9527611956471604, -1.7739435414470306, -1.8338521655939484], [-2.020018237749706, 0.14931107146658604, -0.7015902536338227, -0.8417641542536984, -0.7761691062598728, -1.1203174064106263, 2.291731738874604, -1.5788451268967116, -0.4219694754820852, 0.007962397883510166, 0.42646660782766044, -0.7354313306411692, 4.79255652190919, -0.43631001217990256, 0.6142224009698811, 1.0306782712885358, 1.1887957279280645, -0.9431651888176986, 2.357490262047787, -0.10195958174484575, 0.4537187672937578, 0.41459467087640683, 0.5225155811599348, -1.3676196171865678, 4.599982519228892, 0.19375986901295145, -0.15289788760048487, -0.9278613534263099, -0.34716430651834435, -1.5811950964867234, 2.826938337022161, 2.210054198938342, 0.6695202324767002, 1.1410703496899584, 0.4036175783911769, -0.2244849879840666], [-1.2941737696900657, -0.9873510264136328, -0.723660843474646, -0.45010419052779577, -0.17721912325840394, 0.5384218061704206, -0.1017571916755297, -0.026799583625112974, 0.06571819213039737, -1.5756812886709022, -2.275278757523386, 0.5857634638452613, 1.7212537247953006, -0.31194018586765654, 0.5594749743461054, -0.04306684819661846, -2.343488759647781, 1.451728617603621, 3.2362387430485207, 0.4551702850850273, 2.2100346463426987, 0.6682763842539351, -2.9418949961329615, 2.5064794978695377, 3.539943603305928, -0.6213705882175391, -0.19398887457012046, -2.191576421669159, -3.221953079247743, 4.683861985214058, 3.3146013574277515, 4.587658790232955, 5.920533408268209, 3.4803464137607514, 3.5190152490936883, 3.959984113036684], [-0.8641990632071027, -2.002752386632806, -0.8541598205717175, 0.01594316749316461, 0.25525755855045323, 0.23485177352229505, -0.09069501662698008, 0.4511855658089641, -0.06068815885459614, -0.6723296491454351, -0.6022430761168903, -0.22993429040409155, -0.2571617426635531, 0.2609396060268315, 0.03423450853717899, -0.6180762980693724, -0.15707536546233056, 0.13310997233259575, 0.49210330088970655, 0.12643590907189095, -0.842806151418439, -0.8314628909911778, 0.26338237273543175, -0.36533925305740655, 2.1331829143979237, 1.6814637607246568, 1.4735608304655137, 4.7032302900141305, 4.8403717054060005, 0.41936413693216723, 1.8188921481335871, 2.2128674838734437, 2.921273000339523, 1.880227823504083, 1.6101043287098562, 0.7777516524075936], [-0.7726440858197777, -3.3365692686528097, -0.6681015041856558, -0.9468947008790297, -1.101620449219886, -0.7986914305250408, 3.9948897419257343, -0.6794804552017503, 0.06614135207283478, 0.12368123203745084, -0.4238234704344654, -1.0286435296593697, 2.1167454278707614, -1.2762673291806008, 0.3616456146009794, 0.29203578206672975, 0.25909510476647096, -0.14675061142340884, 1.2176014960277126, -1.8949130100212965, 0.5688509769469183, 0.8074055098466506, 0.5186633726937665, 0.7001297936964743, 2.2658693249129893, -4.711479811472781, -1.5170259845020448, -0.9882814674953587, -0.034430986246722736, 0.8269357028634609, 3.1979545783522276, 4.605184886333896, 5.177271593949361, 2.340952630546854, 2.7117642498490415, 1.9843289696805837], [-0.10521850474157061, -2.4613939342378703, -0.1778195301739121, -0.6966683537620548, -0.9861784187530515, -1.6341292100436213, -1.501862414112556, 0.02414599346614413, -0.009995938871846346, 0.6335069433232724, 0.5986454706719828, -1.4214752628775105, -1.0637002639930868, 0.30255677620818766, -0.22060841866419015, -1.1200529108056152, 0.13266136324297284, -1.891410064056545, -0.8258440507941576, 0.49651686019562796, 0.026385941475320914, -1.1990031523678444, 1.4063148477877705, -1.5341772212413338, -8.72113561072675e-05, 1.8232664235465958, 1.9955000447196216, 1.3469397999601334, 2.6794966435313166, -3.526740131370454, -0.3991649511215446, -2.2400815286916633, -1.9723482106315455, -2.509600506208759, -2.8261583419618943, -2.8170550171124757], [-0.5115367346846562, -2.8585352842099323, -1.7206982892622529, -1.762318874711715, -1.4015927320319357, -1.1585291928778951, -0.702720324303935, 0.23786830520751764, 0.2211009734592451, -0.6118399088701633, -0.7021550506527434, -1.1710584043448116, -3.2437356314997743, 0.996325577433099, 1.199511771343886, 0.2048411645120291, -0.476665060153502, -1.7398852625000225, -4.925765584209842, 0.13005367337472726, 0.056413705230413676, 0.4922213271762556, -1.302026646149076, -1.628948395707621, -6.273323654278354, 0.5048976984676836, 0.14078438484006073, -1.2951377079603077, -2.8792469306247006, -2.5058669830421256, -3.905637109712276, -1.6182305375083452, -1.0225605799108246, -1.2839364206318664, -1.0820965187860465, -0.8835332387243319], [-0.6526955803524178, 0.6968792321312551, -0.15339466305616323, -0.4619611026318739, -0.5014621651182104, -0.8627351664769254, -3.9011867501252593, -1.3822770545771357, -0.8303510157972043, 0.10432389651839273, 0.19432857250407615, -0.2076360924129294, -3.9696206867066937, -1.0441549554763547, 0.33988845930976536, 1.386756124734898, 0.489141608189007, 0.5169299909065912, -3.9254280845929714, -1.2977616474127507, 0.3829617636220805, 2.993107188707785, 0.5013351201455266, 1.634810065057258, -6.036822540038309, -2.1004445321953518, -0.9656622575020214, 1.259904962723493, -0.4263359118336895, 2.4441792629015726, -4.418755042826551, -2.8478831722684066, -2.1076405736032484, 0.5795197006228295, 0.7024967720797134, 1.785688348745326], [-0.5158858357680639, 0.2975230390654825, 0.8490722532711175, 0.6568369248943651, 0.2107775380044149, 0.4288925378677945, -0.7697253923509177, 0.23497625650504003, -0.31701535313263146, -1.403738981706192, -0.9690558290423609, 0.318409499990091, 0.7655761920726635, 0.7089297910194797, -0.1924436629194457, -0.32462711427433205, -1.546000262274266, 0.8487608590539003, -0.15182957508538464, 0.39540586656086885, -0.8526352589396772, 0.46116208680488896, -1.7431833967738366, 2.2253257563320785, -0.13806701243139183, 1.3343198280430357, -0.3853530133967198, -0.7798003774141768, -1.8970542153033043, 1.2677290511369645, -2.552680999164853, 0.3052166086257019, 0.889642759119847, -0.7313940684260595, -0.37608241378622814, 0.5792363176441222], [-0.8857936488812284, -1.909249766368489, -0.21570795475083204, 0.7053034435810105, 0.4180515093739561, 1.0605823318486494, 0.7569608813463591, -0.6144187408618569, -1.1460686804110776, 0.0037982003608381543, 0.3233765182576748, 1.4526303667357126, 0.6795052010975396, -0.462496196312485, -0.37641513830618084, 0.4448200951133211, 1.0243977205570889, 2.407269502374965, 0.5389492669756529, 0.05072325415609413, 1.9144587318949269, 3.0795924535011676, 1.3631444976863099, 1.9579421040312186, 1.5256249703868627, 0.36932753284790276, 0.2233150550030057, 2.2988029107309575, 2.048155643777554, 2.486822250099166, 3.1620234070403503, 3.536850031026203, 3.291611800453589, 2.0956326409209924, 1.7862464078122597, 1.874726807718276], [-0.8396027050544158, 0.6408186451169519, 1.682929288822698, 1.1239298673635125, 0.6095706508915018, 0.3357424572110568, 0.37168236361263435, -1.0426287719654421, -0.4546865840854504, 0.2688031839942588, 1.001679319126759, 0.45763906373038965, 1.231600187755993, 0.21698141579032149, 0.7722454584519247, -0.6834736803980251, 1.0038981216646172, 0.9202642225348361, -1.5493755509915228, -2.745804610493941, -1.9893084910576608, -1.0843759733121132, -0.1063533163702441, -0.018343718879257655, 5.668381836710559, -1.9145349204432434, -1.0110265358065869, -2.5773963727533005, -1.7942304938891025, -0.34938581020322745, 3.087835009269109, 2.849160067790799, 3.911694449255524, 2.3879613790226326, 2.2845817681594722, 1.6422975119874645], [1.2060198483917757, -0.29366884947959465, -0.47954957571728263, 0.02162116348909323, 0.007287475400557534, 0.2935413203210476, -2.0068179108483277, 0.4369378985765432, 0.4563108860670514, 0.04563505398247499, 0.45854096575702463, 1.0470290591204405, -4.599378125819523, 0.2132440011010036, 0.1980824486539559, 0.9719380720978283, 1.5665467214101934, 2.467777806922187, -2.0765644755274284, -0.8903446006295745, 0.5257086710209842, 1.6125266745194817, 0.69387662424952, 3.2022882607892336, -0.8670312195169425, -2.296676823270441, -4.032930347097636, -4.630696274608328, -4.413954366552623, 2.7099244233062105, 1.2980085935007324, 2.131891446642966, 2.7481484340511297, 1.7359285618745117, 1.9241788809824893, 2.192621962848983], [-1.5179693862114405, -0.09245808768914987, 0.33440754428662106, -0.08545334824088228, 0.04013077479169825, 0.16089431829765555, -2.4891654190068535, 0.3962714906332144, 1.0681824136142366, 0.8385600808276105, 0.565176045262069, 0.17422321586114342, 1.2943959468299393, -1.1756409858888397, -0.36114834771830545, -0.636714752469301, 0.0783538219398419, -0.020798416290470276, 1.8698000417933238, -1.2114889385875909, -2.6306016080530616, -2.7465367874159585, -0.5477089419833533, -0.5771118767973347, 4.3637560418987285, -0.7243325396126857, 1.08148844794209, 1.0292448235002047, 2.092893087735611, -0.3799640288439261, 3.402767355659955, 3.3711936514779337, 2.707203547366357, 1.3061420386790443, 1.2420426860971823, 0.17817625500584436], [-0.9616199044922883, 2.284951667256591, 0.939444029363409, 0.9450039463571088, 0.9614273694476887, 1.542261867345439, 1.7209229179116559, 0.9310036269688049, -0.04790163758696469, -0.1456404975470179, 0.01634303216449754, 1.9537153051321752, 0.3729801183191499, 1.0568008198284984, -0.8190802120374655, -1.752109753512779, -1.260560693947445, 1.486159057129338, -0.15429752433999952, 2.0292831172301535, -1.5349816569346284, -3.2009152742200753, -0.7634662810205675, -0.6467443852304208, -2.6394203342059077, 5.079045184552391, 2.506160232652461, 1.7502144453011954, 1.9420820703488921, -0.5947803929238656, -4.700570726487891, -5.004772995088336, -5.467982374202774, -2.013855556292135, -1.5494403774144854, -1.7844380143893661]], "biases": [[-1.7643239562133384, 0.454283209005716, -2.5189573685033886, -0.6399573928425522, -0.2641664856325319, -0.410539191330937, -2.2907155247368243, 0.3034491565117993, -0.7393071654560236, 0.7332362342573483, 1.455302086429079, -0.7808287327767771, -1.5290368573510795, -0.046257656938078644, -2.875783171682069, -1.2476058934134495, 1.2601966101707716, -2.204488372098167, 0.8209461768116971, 0.8040502202906425, -0.13908374676568266, -0.24013064412062496, 2.8897285654516263, -0.3261899306034928, -0.7028706673609593, -1.4082417945111927, -3.1034212510311923, -3.017799473054263, -1.0945711364930486, 0.36982893457732285, 1.3953342900608996, -2.75009271083757, -3.473795599612202, -0.06904134594084665, 0.1287432936323331, -0.3622981330549648]]}