{"weights": [[2.5890566111376514, -1.1026938629783227, -3.7954361634272202, -4.034670916077389, 0.7187470594105858, -7.466741590392616, 4.229067983424306, -5.281161568709348, -3.0296524371504656, -3.2033118337457007, 0.1969510509790241, 0.7157899424936954, 2.221500217450565, -5.569821547131476, 4.906609715909994, 7.035886337636239], [-0.07295589824144506, 0.11783096837320485, 4.3320598404974655, 1.0344118149011297, -4.81264710307829, -1.0273311342064262, -10.60519210897815, -3.708860078673775, -6.7990709166166425, -0.08590485062703185, 0.5971746564639101, 1.284450254638304, 1.3823601833743713, -3.230065053022872, -9.041248764904624, -5.357108066966532], [-2.7342703224726974, 2.1270367162161956, 6.9465075603706525, -5.209659387513571, -3.4073097895818427, 7.551192433883487, 4.629575448635892, -1.6905116103999742, -0.8120445147910064, 1.993463873318693, -1.3889426896254038, -0.7169748189706671, 4.267955153094346, 1.9088780712339728, 1.2713032638974122, 0.8515444476939782], [4.283812582877405, 3.0119479220411915, -4.105161442044026, -2.7572465714779018, 7.939843707546688, 2.6424450829336994, -2.3753735386955195, -5.590551361476899, -3.421510713301721, 0.8237942523134929, -2.214042889305954, 1.655302965170758, 0.10468489189311628, -0.03055387283251368, 0.4022023416845584, 0.5300998254816582], [0.5427027202064238, -0.8461800915564944, -2.6789315572204027, -1.3751219506017902, 0.6446208704939397, 0.20077291272970146, -2.269733199715634, -4.371106060403324, 3.1357519691863, -3.3559977144056337, -2.470096348826511, 1.9854852900555569, 0.08020680067150229, -5.173532756366021, 3.5001531642630757, -1.954442831559509], [-0.042712221096820026, 1.3800946665672604, -1.1098589712450604, -1.5807806980662358, 3.6276398428406056, 0.2040989129826062, 2.0734925255383994, -2.6952164806242793, -0.8286000988967206, 1.0450789767254616, 1.0185384442954855, 6.481064528373291, -0.08444031366331867, 2.7537530636039205, 2.0073907217969684, 6.369145363281249], [-2.2695374200529157, 0.3633708253097436, -0.8657005730956218, 9.227722995171579, -1.0860274390584461, -4.191090697916696, 0.9380195991688335, 2.267772572092743, -0.6931402285851155, -6.364928383778657, 2.4111868773084075, 3.2301481120340902, 1.5101738562927838, -6.004219303085932, -8.290685559122403, -0.31227770137539906], [2.403723529389815, -0.3065651474727916, 2.5703045313770683, -2.7810316370379486, -3.4250894776024, 2.114774299399447, -1.2919351690113143, 4.585645470216206, 0.28711326412764504, -3.1479168690379913, 4.453223099050722, -2.6491543966811535, -0.9892532787745599, -2.0544550904502357, 0.7705342078618044, -1.9939916913169564], [-3.8977393830857214, -4.438992023250309, 1.0195347524312912, 1.2016447926536247, -2.460870616468429, -2.884075160765706, 2.325671052663147, -1.2446221222299132, 2.4990811745534494, -5.375876633046272, 1.5968225734603896, -3.085994542107721, 0.6412378166360309, 0.7875057723699667, 2.4137518838932492, 0.5231266853508698], [-0.1210078927146991, 3.2382993566264986, 0.6533688124930785, -0.8437218239923164, -1.5363782210618186, -3.0690809723531736, -1.1628982955719944, 1.4199117768992309, 0.9165900834038543, 2.032550140792131, -3.782809712857292, 3.8388723331743364, -1.8046129376944395, -1.4698256747518343, 6.190148423853525, -0.7226550751577846], [-4.248017869038087, -0.7464064802857454, 2.1593156243991296, 0.36621828831109715, -5.870507062603825, -1.4035995776350128, -3.937433335018067, -4.185447547894243, -2.193684927485873, 2.8358281800372542, 6.889985760814213, 0.7953374746587266, -1.4283738617742276, 0.8830516777564362, 1.2075480503032496, -2.503899956679743], [0.307121628990988, 0.6041488672685265, -0.023649170705450223, 2.4864660571410946, 8.372909976805076, -2.189671354045692, 0.5261272870974353, 7.080386326237488, -0.00766247592704605, 5.03197143085145, 0.08180682240414704, 0.9654876471551065, -2.1001304538804773, 4.600815722326803, 7.834184810424055, 3.7487199961867073], [-5.9741392901660175, 3.744095666301989, 2.706617822040946, 2.130622877119678, 3.1257646103370886, -1.0955174384377884, -1.7410707226682056, 0.3250369046311802, -0.17486705165178482, -2.5317265489435656, 1.5271390621085161, 0.12905065218457268, -2.9683314396071894, -1.6271191152706512, 3.8633878967038755, -3.305444784482353], [-2.250456276663851, -2.1655203726596577, 3.3484154035038567, 2.4490433811990804, 1.0920653497400767, -0.2534980515664987, 0.13714247353562609, -1.3700002145970613, 0.6366662371436465, -2.1752467540344425, 0.5924762183897231, -3.3657315566473396, 0.3726116407619374, -0.29823619752038955, -6.890635233753575, 1.7977406705136827], [2.9992428325181972, 5.287511462062797, 2.3112391377275725, 0.07845078015396578, 1.549088899470567, 2.309187857909969, 0.17995317875996772, 0.38739245858150895, 3.3650185336137524, -0.007804381273096195, -0.509740763007054, -4.495447988475472, -0.4574888291779323, -1.3470718103058095, -0.7406554185303684, 0.06067011939511692], [4.781439640534374, 3.3326391333737995, 1.4480808711263229, 3.143005631175937, 3.5216139850705592, 1.408294880605399, -3.481777129341531, -1.765100686657153, -6.472978701780441, 1.0541391319477307, 2.259133135500253, -3.4776614585097154, -4.719645283669257, 2.200085738633588, -0.8084905923505862, -3.2915135960552115], [4.3391146303595, 0.08020204411677505, 0.35338124918896663, 0.7495546977806194, -9.744246389994077, 3.1757391117513056, 6.99158765929704, -1.8153457550131082, -7.623665751012429, -1.326336763014082, -2.5109449449056966, -4.730352432281252, -0.0019924609719203464, 0.41346144045182937, -2.845643381838702, 0.7671342673833503], [1.7543983925463666, 0.9026311116870271, -0.12173888270571702, 0.6731718796169187, -1.8627564367307246, 6.040259800070351, 2.0007278229212746, 3.965193191995416, -6.403994912346517, 4.610617997200668, 5.6312687868009785, 1.1577626228036726, 0.7069283075099594, 2.255807391054367, 0.06833555157478478, 2.4099214028933362], [-1.083502940028358, -4.377823514077149, 0.31050962742364796, 2.000131078585303, 0.9611677536618533, 2.0846376419504398, 0.058968001908916816, 0.3101726911999673, -3.3244434421042994, -0.8921659104832477, -2.7758892359024188, -0.49276425288139475, -0.5999719575749358, -0.12238755581729241, 0.3673089181247587, 2.619919490449479], [-4.978675088159296, -3.5928762521921684, 2.1676249896818485, 1.3975195940281269, 4.501484818923304, -1.2542208088566476, 0.1856726872069481, 1.847105073456237, 1.395401317627098, 3.9905205039169247, -0.27295841776743807, -3.6036136752258954, -0.10434149392065693, -0.43427138247147534, 1.5696522808538393, -0.5835759456522012], [5.661288705127749, -1.8850968396886498, 1.843736259637459, 1.0404751713078029, 1.5968295793599785, -2.0971986247781107, -0.3607999850727211, 1.0226422789787988, -4.279056328994116, -3.622306322647692, 0.523776228016015, -2.678011412779689, 0.8401893128667981, 1.1593389099920832, -6.41740247464498, -1.5156912045902278], [-0.6538923096591527, 4.8092466878416005, 0.765989049444417, 0.11678616890595879, -1.9685512191073224, 2.0916966506007606, -3.75996506056641, -1.3618403010708016, 2.5745714775672384, -1.0015747205332246, 2.9876632822516727, -0.027771632699169168, -1.4291429909348206, 0.20244619814826376, 0.3704369349895083, -0.6711777383563109], [0.6382771157197019, -7.710180605096824, 0.8716928823575134, -2.0138204561134305, -0.26244848990668973, -1.6148700952111998, 5.581004526063367, 4.595232122617725, -2.60631079963699, -1.4201075144344601, -0.407003004271671, -2.1955052751530855, -0.04603930861007474, -3.6782712994488405, -4.279304579933006, -1.254747719962454], [-0.46233820677668336, 0.21979720083559642, -3.0218697870623896, -1.681981577065831, 2.4936032299725803, 0.8426330986499272, -1.0442181527778414, 3.87008502579918, -2.4469067372112048, 2.26498891168962, 0.5826302633525692, -2.230243332868162, -0.283840844362529, 0.5765100689800295, 0.06662164065211344, -0.6942472018824891], [2.5518786615080473, -3.1364842688089927, -2.123363580930522, 0.7775231855724009, 6.361658838717024, -0.39793070263763836, 2.00808475280923, 3.772339589953285, -0.15667662593108916, -0.1713774041079935, 1.0465505596273736, -0.8081102031031038, 1.1488109191283973, 0.4383179167035282, 1.5810692628415826, -2.198374537462415], [-3.4151202124644264, -3.2774497116369092, 1.7103304918490514, 2.2934984300105516, 0.7523314778519301, 0.23581179108453554, -4.88796666734828, 0.9348523448190903, 2.1882481354137275, -2.076493950804007, 2.5779173537873574, -1.7207113367152822, -1.178426133662942, -0.2776367563964168, -1.033876007557472, -1.181234975057189], [0.3637626261204896, -3.2841839698141575, 2.0350024273569116, -1.7987518681579915, -1.5833151990080185, -2.647165763274054, 0.10117583772841349, 0.07838160321939655, 3.1177199207768176, 0.9007889754546472, 0.1371441301249346, 0.20837459363592029, 0.7754607571809528, -2.490153550022044, 2.332771162484759, -0.5322257929333483], [-0.5255723905694638, 0.18971211284779074, 0.4914134908739216, -0.2712879649355395, -1.022473254852879, 3.1239316498413046, -0.40815078712602887, -0.8625570303034554, 0.30690598133907415, 1.1728307843834178, 1.4438385700170666, -1.8122991919876588, -2.0730948573844397, -3.768063784088378, -1.5017431766466072, -2.2278676474772983], [4.720415499488069, -1.1347898548652091, -1.0628239460758726, -1.7481749910623199, 1.759324397114155, 0.8035929868821666, 0.5301058352560865, 1.7401373564650398, -0.17674103156362092, 1.3363397109942008, 0.2582136076503908, 1.7633279128544785, -0.1253402496675102, -3.4881302973304904, 2.4759161487413293, -1.511762152596757], [-2.9589233824869825, -1.8876058352907685, -1.414709839078333, 0.15330338186832715, 2.155773281902702, 3.867046741079407, -4.08331999153559, -4.420790842399912, -0.1200839342588884, 4.026041462051622, -0.28946224792870673, -1.6501743744704866, -1.1942429986759255, -0.26748522631532423, -0.6503791746934111, -1.4425669340704885], [1.146122444632635, -2.96923404940171, -0.3540149371267214, -0.1959283378870554, 2.314741322382977, -3.468049214124221, -5.83490233557086, 0.45837567755057385, 0.5148717519382943, -2.9355871251861543, -2.432874312822921, 6.275942123411179, 1.040745664596103, 0.6544297966747248, 1.9833886888412193, -4.192637503752479], [-4.1675497847966945, 1.1652760113061273, -0.03275166241527195, 2.202447078548945, 1.1131327676369378, 0.5405626904955088, 0.47960406538752, 2.2253018578645243, 1.6672048118270648, -0.5384595505678558, 2.8163082860076583, -2.9565036808928573, 1.8068440537790489, -1.734392149210473, 2.7940338797024125, 1.0902700979509488], [-3.110633975155294, -0.040576312101960575, -1.3699780211808184, 0.7308624323195693, 4.416583286946536, 3.60839686816483, 1.84820272398549, 2.9634834480282155, -0.456897819686972, 1.8799671285707915, -1.3318076836748975, -1.9266589395778102, -3.2922050868509354, 0.9093966779278425, -1.8901079271078074, -0.747636116968533], [1.1907286169890943, -0.056408007424968376, -2.1174448394341305, 3.5521519334507103, 0.7113106022555283, 1.0904727368824418, 3.4990943776421313, 0.7350988427942772, 1.1282132618855292, 3.029473904403393, -2.2015039458825187, 0.919258110064065, -0.38689743782182834, 1.156878150215865, 3.3048276670046604, 1.8791414473827255], [-9.140920487941179, 1.2935931852387608, 1.4487899468298475, 2.992930842426015, -2.700534149213344, 4.390215213482285, -1.2770370058719134, -4.929276893457829, 1.8923371849222403, 3.5340355439193334, -0.03761697675171985, -2.8266838891643133, -2.6964030444557023, 2.9588226920900653, 1.6945274450336203, 0.8314646117162147], [-0.3630626479933239, -2.728947528474116, -1.016943955992195, -3.2774227154133615, 4.0504925475237705, -1.20138941180828, 3.6870270906820073, 3.1535387288332157, 0.5545995726553518, 4.489118520015524, -2.045749768337802, -0.5481018275845414, -0.04851992824923733, -4.59842622695769, 0.3074667991013919, 1.48073140358987]], "biases": [[7.272121229090517, 6.729151326141378, -0.824182995429411, -0.053043882798755944, -2.5784921288542666, -1.0704707350441185, 4.644113536532218, 1.1730516891779508, 5.648602521373359, -2.379893773685082, -0.1438379162582918, -3.860413331599446, -1.7203518388117425, 3.452706278892818, -3.4404100134715714, 4.031639094311999]]}